//Numpy array shape [64]
//Min -0.982645511627
//Max 0.904907405376
//Number of zeros 22

#ifndef B2_H_
#define B2_H_

#ifndef __SYNTHESIS__
model_default_t b2[64];
#else
model_default_t b2[64] = {-0.6503423452, -0.3168202341, 0.8552064896, 0.0000000000, 0.5916639566, 0.0000000000, 0.0000000000, -0.3104610145, 0.6778011918, 0.6362681389, 0.8078514934, 0.0000000000, 0.0000000000, -0.9016339779, 0.0000000000, 0.0000000000, 0.7240447402, 0.0000000000, 0.3459568322, -0.6601058841, -0.7643440962, 0.0000000000, 0.3624450266, -0.7634744644, 0.0000000000, -0.1956703365, -0.8509211540, 0.7613578439, 0.0000000000, 0.0000000000, 0.4717370570, -0.9826455116, 0.0000000000, 0.2274219096, 0.8983355761, -0.5781500340, -0.8127669096, 0.0000000000, 0.0000000000, 0.9049074054, 0.0000000000, 0.0000000000, 0.0694371834, 0.3762541413, -0.6014928222, 0.6227743030, 0.5686196685, 0.2755312324, -0.5308940411, 0.6405903101, -0.9024748206, 0.6473337412, -0.9543579221, 0.0000000000, -0.8755865097, -0.7886339426, 0.0238835290, 0.0000000000, 0.0000000000, 0.0000000000, -0.2460547239, 0.6714905500, 0.4628516436, 0.0000000000};
#endif

#endif
